-6.774980222221459769e+01 -6.715980851213063829e+01 -6.658672027067500210e+01 -6.603131725384577067e+01 -6.549192387722956710e+01 -6.496466038012600563e+01 -6.444393587210555552e+01 -6.392303173140413719e+01 -6.339464525875458634e+01 -6.285133312285176999e+01 -6.228588065517881489e+01 -6.169168793693928166e+01 -6.106327580174902891e+01 -6.039696292798679167e+01 -5.969166312526048301e+01 -5.894963649480406787e+01 -5.817694767917242160e+01 -5.738338149402369481e+01 -5.658165955271919501e+01 -5.578597404786347624e+01 -5.501005501443358270e+01 -5.426514516451523207e+01 -5.355831015208836732e+01 -5.289143518364963370e+01 -5.226107324877262528e+01 -5.165908030462623657e+01 -5.107378051596607804e+01 -5.049131707988600226e+01 -4.989688679962522855e+01 -4.927570433012894568e+01 -4.861372985435831851e+01 -4.789834200025906341e+01 -4.711918104075336799e+01 -4.626929979207641708e+01 -4.534656561195807711e+01 -4.435502675973885545e+01 -4.330578512854298623e+01 -4.221689158719087942e+01 -4.111194214859144580e+01 -4.001737598522705497e+01 -3.895886340625311561e+01 -3.795748695703864684e+01 -3.702653780549491103e+01 -3.616961444728933373e+01 -3.538035907386456813e+01 -3.464372159249180783e+01 -3.393826228489024999e+01 -3.323882353707408299e+01 -3.251897035624867272e+01 -3.175287122125517314e+01 -3.091664163817226196e+01 -2.998945350329443826e+01 -2.895480669819861674e+01 -2.780222275865512316e+01 -2.652930212316993774e+01 -2.514371034172165764e+01 -2.366438339257572920e+01 -2.212120481968723595e+01 -2.055266768194551474e+01 -1.900154160733019637e+01 -1.750916375852377271e+01 -1.610945111674788421e+01 -1.482390372462222139e+01 -1.365865127173536742e+01 -1.260405025268840618e+01 -1.163665423434282431e+01 -1.072279812565146351e+01 -9.822759236935631577e+00 -8.894563376991024839e+00 -7.896924732551565462e+00 -6.791357399592765631e+00 -5.543943414525222657e+00 -4.127398256362948992e+00 -2.523862860114302720e+00 -7.283371488364432933e-01 1.247952348755422269e+00 3.375428285014993701e+00 5.606541249267626092e+00 7.879491821090741865e+00 1.012528949234751963e+01 1.227712660486193030e+01 1.428022308515574323e+01 1.609999369186447638e+01 1.772675239901407451e+01 1.917609566652904007e+01 2.048527473905271279e+01 2.170686195267953167e+01 2.290149918051641720e+01 2.413135911266199685e+01 2.545527263351575442e+01 2.692558575839987611e+01 2.858607212196069725e+01 3.046992394244570690e+01 3.259707734370320509e+01 3.497078955133568456e+01 3.757420152298168148e+01 4.036824453067112728e+01 4.329238810271467486e+01 4.626924803307825584e+01 4.921307447855997452e+01 5.204093469800817928e+01 5.468442043403635466e+01 5.709932811994855939e+01 5.927115944542772041e+01 6.121536164127528679e+01 6.297260924071059662e+01 6.460064884426577692e+01 6.616488905225129713e+01 6.772984958946705092e+01 6.935289297077811455e+01 7.108066597035895029e+01 7.294776447226514904e+01 7.497661257730824502e+01 7.717754334831366236e+01 7.954850836853560736e+01 8.207449504476508650e+01 8.472730217971032118e+01 8.746656917862651426e+01 9.024275748362488514e+01 9.300220206279139745e+01 9.569359689971187777e+01 9.827463899537347913e+01 1.007172850742504124e+02 1.030102950853999886e+02 1.051583859113016359e+02 1.071781818337148593e+02 1.090919456774774119e+02 1.109205742716679310e+02 1.126774397720057976e+02 1.143643924549939470e+02 1.159707418041846267e+02 1.174754473688007863e+02 1.188521806221173591e+02 1.200764089833060950e+02 1.211332260803908980e+02 1.220243571910322089e+02 1.227727020491243195e+02 1.234230519660019780e+02 1.240382904987899764e+02 1.246913803093549404e+02 1.254545196371211944e+02 1.263876853620294156e+02 1.275290561073217361e+02 1.288893826226798183e+02 1.304513450026113617e+02 1.321736332040991044e+02 1.339983371030629939e+02 1.358595967788203325e+02 1.376915006928892069e+02 1.394338367294063232e+02 1.410352162345107558e+02 1.424539614010784874e+02 1.436577025261134395e+02 1.446227569534286204e+02 1.453340926093275129e+02 1.457861560746360396e+02 1.459842566502430543e+02 1.459457454373562939e+02 1.457000914441716191e+02 1.452872244196541942e+02 1.447541033110909439e+02 1.441501145918544751e+02 1.435222887130060769e+02 1.429112783716656736e+02 1.423486563587939315e+02 1.418556178108414940e+02 1.414428442340480672e+02 1.411111887728611123e+02 1.408529158934231589e+02 1.406533595547674622e+02 1.404929597723574091e+02 1.403496582283954695e+02 1.402015820536145725e+02 1.400298451622805374e+02 1.398211802510083999e+02 1.395700189522517007e+02 1.392796057645492454e+02 1.389618041871873970e+02 1.386354503924136168e+02 1.383234075310342632e+02 1.380487992367611696e+02 1.378311486895556470e+02 1.376832218626316546e+02 1.376092245790853781e+02 1.376046656594736532e+02 1.376577772056812705e+02 1.377520143705298779e+02 1.378689551379553393e+02 1.379909344571678105e+02 1.381029459337625553e+02 1.381936376916447102e+02 1.382555073954074487e+02 1.382845783713532626e+02 1.382798778021909243e+02 1.382429564030752260e+02 1.381775422908258975e+02 1.380892780660064432e+02 1.379854052058728371e+02 1.378742600650487589e+02 1.377645225500753554e+02 1.376642747203200088e+02 1.375800318637058695e+02 1.375159589848851454e+02 1.374734600240729776e+02 1.374512347477228218e+02 1.374457738894713827e+02 1.374521520523219635e+02 1.374649173924710226e+02 1.374788826140749620e+02 1.374896832480684736e+02 1.374940580641142844e+02 1.374898891595321402e+02 1.374760901763724235e+02 1.374524403241391894e+02 1.374194357030105209e+02 1.373781849517658600e+02 1.373303336070443663e+02 1.372779766617731241e+02 1.372235187811756703e+02 1.371694636651591850e+02 1.371181474149450423e+02 1.370714612124187681e+02 1.370306237004649006e+02 1.369960570628521452e+02 1.369673952919966382e+02 1.369436180786256045e+02 1.369232719085670169e+02 1.369047220819939525e+02 1.368863802539372898e+02 1.368668692367943436e+02 1.368451121970158511e+02 1.368203571898103803e+02 1.367921624209918718e+02 1.367603694574485758e+02 1.367250825677296007e+02 1.366866578267488137e+02 1.366456921904683952e+02 1.366029958888092608e+02 1.365595336943594305e+02 1.365163307656810332e+02 1.364743526395496360e+02 1.364343809277527271e+02 1.363969114659487332e+02 1.363620978131893366e+02 1.363297513866359623e+02 1.362993943936411938e+02 1.362703485691418734e+02 1.362418360256333187e+02 1.362130700706681523e+02 1.361833222421665823e+02 1.361519632514996658e+02 1.361184854345048905e+02 1.360825190893307308e+02 1.360438533089705970e+02 1.360024647134325448e+02 1.359585480015013843e+02 1.359125345207219766e+02 1.358650826111107222e+02 1.358170279827154445e+02 1.357692928958487073e+02 1.357227660011652119e+02 1.356781755894931507e+02 1.356359833860606727e+02 1.355963218509768922e+02 1.355589864076799245e+02 1.355234791834957946e+02 1.354890880540822025e+02 1.354549784883292887e+02 1.354202776908151407e+02 1.353841393633308030e+02 1.353457890322963806e+02 1.353045594054224239e+02 1.352599287254690807e+02 1.352115711117984631e+02 1.351594179135151990e+02 1.351037171099166585e+02 1.350450688875282594e+02 1.349844141033393612e+02 1.349229603463434159e+02 1.348620461379999540e+02 1.348029625352171479e+02 1.347467663510021225e+02 1.346941245289128517e+02 1.346452223212896513e+02 1.345997508143264554e+02 1.345569679688518647e+02 1.345158093220762510e+02 1.344750160751202657e+02 1.344332519160666379e+02 1.343891933697576633e+02 1.343415958016216791e+02 1.342893511289115054e+02 1.342315578378466512e+02 1.341676166302072772e+02 1.340973480527690924e+02 1.340211080426128092e+02 1.339398619154170547e+02 1.338551746518197660e+02 1.337690891881748598e+02 1.336838924602002123e+02 1.336018027062396811e+02 1.335246390371661960e+02 1.334535446493419784e+02 1.333888232287535232e+02 1.333299174005457246e+02 1.332755193058671921e+02 1.332237705251478985e+02 1.331724930979195847e+02 1.331193997018518473e+02 1.330622549195546185e+02 1.329989901064410560e+02 1.329277986893271191e+02 1.328472466188772216e+02 1.327564205566956730e+02 1.326551084619635787e+02 1.325439743731002409e+02 1.324246651630779752e+02 1.322997837822606471e+02 1.321726861993532509e+02 1.320471035036733838e+02 1.319266428783685683e+02 1.318142629890206763e+02 1.317118344680791324e+02 1.316198773220478984e+02 1.315375196058240874e+02 1.314626620834050073e+02 1.313922831114898599e+02 1.313227942605370515e+02 1.312503672312975027e+02 1.311711902632711144e+02 1.310816607600768577e+02 1.309785595442478154e+02 1.308592640233810300e+02 1.307220357565396114e+02 1.305663687665620216e+02 1.303933266129181163e+02 1.302057531374092889e+02 1.300082359164294701e+02 1.298067431736126025e+02 1.296079368311582130e+02 1.294182615911619507e+02 1.292429879052947683e+02 1.290854145914740911e+02 1.289464009288925865e+02 1.288243086737639658e+02 1.287153229915723784e+02 1.286140278617513104e+02 1.285140685516453800e+02 1.284087532857123506e+02 1.282915157091907190e+02 1.281562479191221087e+02 1.279975834299775670e+02 1.278112312752564605e+02 1.275944260365256895e+02 1.273464761370490095e+02 1.270692956151563493e+02 1.267677332707156665e+02 1.264495029222618285e+02 1.261245855483880973e+02 1.258041059416137983e+02 1.254988432701918413e+02 1.252176616721563676e+02 1.249661944254352193e+02 1.247460605914983489e+02 1.245547514549290469e+02 1.243861444121047271e+02 1.242314479047164326e+02 1.240803056628086836e+02 1.239218134998336325e+02 1.237453096119128730e+02 1.235409411754196469e+02 1.233001260020861025e+02 1.230160695756128177e+02 1.226844458745390085e+02 1.223042228192099969e+02 1.218784596969607463e+02 1.214147898105115218e+02 1.209252842542619106e+02 1.204254981327122209e+02 1.199327085820820287e+02 1.194636003377954268e+02 1.190318516408592444e+02 1.186461436055824237e+02 1.183090255564832631e+02 1.180168431030628966e+02 1.177606525315504200e+02 1.175278033220408958e+02 1.173037507049304367e+02 1.170736933091509684e+02 1.168237896900327257e+02 1.165419203484903790e+02 1.162181432998785056e+02 1.158450742654413403e+02 1.154183812642297795e+02 1.149374399809817078e+02 1.144060118241798136e+02 1.138326594611556430e+02 1.132305730114928508e+02 1.126165761845481654e+02 1.120092962702115642e+02 1.114267467847520408e+02 1.108837915919139476e+02 1.103900482825388139e+02 1.099487049580689160e+02 1.095564907837875950e+02 1.092047361497516533e+02 1.088811877877862315e+02 1.085720958628064352e+02 1.082641017950432882e+02 1.079456043764003681e+02 1.076074985962184485e+02 1.072433827917040361e+02 1.068494496408058296e+02 1.064242885208114302e+02 1.059687467888538492e+02 1.054858721542129416e+02 1.049808444020017930e+02 1.044607487307116145e+02 1.039340657593167521e+02 1.034098444884033654e+02 1.028966475311864457e+02 1.024014638749937518e+02 1.019288307112784366e+02 1.014803725894621778e+02 1.010548636668781910e+02 1.006487830986327623e+02 1.002572112092976369e+02 9.987484360078403256e+01 9.949689844102954339e+01 9.911975000870015151e+01 9.874121199007913674e+01 9.836048488163385173e+01 9.797784860582959254e+01 9.759421379028484012e+01 9.721064616086016485e+01 9.682795863529341318e+01 9.644643598806548823e+01 9.606572471761644749e+01 9.568488930480702948e+01 9.530260709591148327e+01 9.491745024373162209e+01 9.452818890120667561e+01 9.413404966990526646e+01 9.373487881047614678e+01 9.333118755263907929e+01 9.292408876034478737e+01 9.251515984322287522e+01 9.210627775597183131e+01 9.169946526261547604e+01 9.129676718782130251e+01 9.090015026126873465e+01 9.051140132233068414e+01 9.013199471839838850e+01 8.976291371891706206e+01 8.940443864917804717e+01 8.905594604102533651e+01 8.871578520188759853e+01 8.838129966940718418e+01 8.804903596933480969e+01 8.771513543791839140e+01 8.737585040697257455e+01 8.702808258074024650e+01 8.666982568081368754e+01 8.630041401268903201e+01 8.592052830026459276e+01 8.553197348241018005e+01 8.513729887888605674e+01 8.473936150485380381e+01 8.434093084609276048e+01 8.394440285420293435e+01 8.355164626371578152e+01 8.316396252329879246e+01 8.278211507660391533e+01 8.240638007095145667e+01 8.203658592693533080e+01 8.167213441445490218e+01 8.131201949986845534e+01 8.095487266819772287e+01 8.059906008343838835e+01 8.024283951447380048e+01 7.988456055381591625e+01 7.952287012312027059e+01 7.915687536263547486e+01 7.878622205068897699e+01 7.841106691573936871e+01 7.803194960675607206e+01 7.764959550205402650e+01 7.726469630770387198e+01 7.687771808142227314e+01 7.648877721324915058e+01 7.609760844789414591e+01 7.570363026757404157e+01 7.530609541037398458e+01 7.490429951444494350e+01 7.449780936448398450e+01 7.408666497738678913e+01 7.367150907199894050e+01 7.325360612881613065e+01 7.283473258173654585e+01 7.241694743051488103e+01 7.200228216117201896e+01 7.159241104852263504e+01 7.118836926331323411e+01 7.079037307645523924e+01 7.039776733849021184e+01 7.000909028965487835e+01 6.962221745398706219e+01 6.923453544754951849e+01 6.884310685290111564e+01 6.844481419907616271e+01 6.803650274524819963e+01 6.761516346574894953e+01 6.717819719133534306e+01 6.672377368939075382e+01 6.625125152089900382e+01 6.576157184610782735e+01 6.525750368595785744e+01 6.474361915211970597e+01 6.422592374674329108e+01 6.371115108460837462e+01 6.320582862666852009e+01 6.271529741935191993e+01 6.224289448768633548e+01 6.178946848331748498e+01 6.135330835091671986e+01 6.093045278923438701e+01 6.051525522959347825e+01 6.010103733642225166e+01 5.968068552538949945e+01 5.924711682679031099e+01 5.879363062787128769e+01 5.831423293192560919e+01 5.780403920765491677e+01 5.725981930181954738e+01 5.668065593061832175e+01 5.606858071416184686e+01 5.542897304867987174e+01 5.477049698526906241e+01 5.410442829049592461e+01 5.344337463774996166e+01 5.279957142455046437e+01 5.218308127796564833e+01 5.160028013825547077e+01 5.105295037242120770e+01 5.053813885148728247e+01 5.004873162595594493e+01 4.957452041185423752e+01 4.910345094541233379e+01 4.862277405633523841e+01 4.811994611084875118e+01 4.758328929127306850e+01 4.700255396919057205e+01 4.636956895631330156e+01 4.567909925001399074e+01 4.492987705051203307e+01 4.412558968068139365e+01 4.327547487125389836e+01 4.239415711309068513e+01 4.150048826519617506e+01 4.061540641557601816e+01 3.975912192592458894e+01 3.894817407543526144e+01 3.819298383062444202e+01 3.749641787399380632e+01 3.685360795562997538e+01 3.625293206475377872e+01 3.567777977609823381e+01 3.510859123904467083e+01 3.452471518160299979e+01 3.390584038382483101e+01 3.323302471118373091e+01 3.248956299818531335e+01 3.166200864770772938e+01 3.074155753798253699e+01 2.972574994503440493e+01 2.862014132209923645e+01 2.743936253127312241e+01 2.620694881112857644e+01 2.495351985892267521e+01 2.371330609711851167e+01 2.251951370647802264e+01 2.139942747313139293e+01 2.037030603528995698e+01 1.943695341628116324e+01 1.859140110667458501e+01 1.781456314083579784e+01 1.707923727959719074e+01 1.635358813872803196e+01 1.560432990749005100e+01 1.479916855409762810e+01 1.390851025996816759e+01 1.290680563352436927e+01 1.177402926698894703e+01 1.049763671071689686e+01 9.074954743109742594e+00 7.515499011431214349e+00 5.842371520531949969e+00 4.091837639672922577e+00 2.310492132468431770e+00 5.500348172899822696e-01 -1.139600400653658419e+00 -2.717440322548907439e+00 -4.157459142593725510e+00 -5.452086538426762274e+00 -6.612624536213167481e+00 -7.666788006221235463e+00 -8.654289005315407124e+00 -9.621727502454239911e+00 -1.061793374063852013e+01 -1.169041117173950006e+01 -1.288287369584322661e+01 -1.423332871722767479e+01 -1.577195007759328327e+01 -1.751820371653012032e+01 -1.947726012078221203e+01 -2.163643156260088674e+01 -2.396291328901086004e+01 -2.640421924198764003e+01 -2.889225463321657728e+01 -3.135103889759741236e+01 -3.370696907736986248e+01 -3.589959709586503322e+01 -3.789054743883337295e+01 -3.966859293262891129e+01 -4.124992615523632367e+01 -4.267395896255938936e+01 -4.399609623731069519e+01 -4.527948862693499876e+01 -4.658762729886157672e+01 -4.797892745833603811e+01 -4.950348388774485642e+01 -5.120135781951406528e+01 -5.310136704389176998e+01 -5.521950794626253156e+01 -5.755673461465129748e+01 -6.009658943789448671e+01 -6.280379176741254810e+01 -6.562506983513777925e+01 -6.849314430645502227e+01 -7.133392561087940464e+01 -7.407594782354939866e+01 -7.666020390418984221e+01 -7.904820343103686753e+01 -8.122640135551448282e+01 -8.320605565413988813e+01 -8.501875874526940891e+01 -8.670895370998988483e+01 -8.832535694304856122e+01 -8.991321619105691809e+01 -9.150881327060808701e+01 -9.313681678020533639e+01 -9.481029573255442244e+01 -9.653265029880274994e+01 -9.830049995045260403e+01 -1.001066585499603434e+02 -1.019426018446280011e+02 -1.038001571698474805e+02 -1.056724119502619885e+02 -1.075539958288212432e+02 -1.094409404516007953e+02 -1.113302911277041005e+02 -1.132195747464881777e+02 -1.151061520651083043e+02 -1.169864232978848264e+02 -1.188548295320727419e+02 -1.207026109462670718e+02 -1.225163560403462242e+02 -1.242765075935139123e+02 -1.259561680983439089e+02 -1.275207296979119889e+02 -1.289289684771551663e+02 -1.301361959139331930e+02 -1.310997671658466004e+02 -1.317866813395766883e+02 -1.321822538435194758e+02 -1.322980998844792566e+02 -1.321772309399526932e+02 -1.318942083154178704e+02 -1.315491494724147969e+02 -1.312558222617699641e+02 -1.311257022949325517e+02 -1.312511651997710089e+02 -1.316914423509336700e+02 -1.324643548425607378e+02 -1.335453139885417215e+02 -1.348731458713079974e+02 -1.363606270805985332e+02 -1.379067645370783168e+02 -1.394080438690025687e+02 -1.407669359662403679e+02 -1.418974048835107737e+02 -1.427284080355325386e+02 -1.432069470783679890e+02 -1.433019274168096331e+02 -1.430090711904494469e+02 -1.423558380632978242e+02 -1.414042992690624772e+02 -1.402496642048593856e+02 -1.390128914705268812e+02 -1.378273722826753271e+02 -1.368215525618870458e+02 -1.361008815734643917e+02 -1.357330419344482095e+02 -1.357397597946817029e+02 -1.360968011871235319e+02 -1.367416079433538982e+02 -1.375861520258810344e+02 -1.385315951086093662e+02 -1.394814754049608325e+02 -1.403512265686428577e+02 -1.410733706918307746e+02 -1.415991310420015452e+02 -1.418980223839244275e+02 -1.419570136479042333e+02 -1.417802350375866069e+02 -1.413892560220135692e+02 -1.408231104974677521e+02 -1.401368418641898188e+02 -1.393975506619581211e+02 -1.386776794049743842e+02 -1.380462800742794229e+02 -1.375598869793835775e+02 -1.372550086334760238e+02 -1.371439838402096996e+02 -1.372150981899149258e+02 -1.374367275343450103e+02 -1.377642625033303716e+02 -1.381480071650189245e+02 -1.385402799656135642e+02 -1.389004918559496673e+02 -1.391977799238966327e+02 -1.394115273286261072e+02 -1.395305628313923023e+02 -1.395519099307572617e+02 -1.394797025625219931e+02 -1.393244626886223898e+02 -1.391025377089409574e+02 -1.388352764983758618e+02 -1.385475504753651137e+02 -1.382654697848836918e+02 -1.380134939774167719e+02 -1.378114457561250106e+02 -1.376720795990608508e+02 -1.375997752273433150e+02 -1.375906474399945694e+02 -1.376339909376358719e+02 -1.377146444048399019e+02 -1.378156728594951517e+02 -1.379207785548222489e+02 -1.380160311009854581e+02 -1.380907737293777302e+02 -1.381378139044446129e+02 -1.381531633525277982e+02 -1.381356215573965756e+02 -1.380864141648583825e+02 -1.380089556374433926e+02 -1.379086685284708835e+02 -1.377927136094568539e+02 -1.376694917578467141e+02 -1.375478618355820117e+02 -1.374361415385880036e+02 -1.373410688834192683e+02 -1.372669546935841254e+02 -1.372152285726172920e+02 -1.371844817650041648e+02 -1.371709768533077920e+02 -1.371694750019723870e+02 -1.371741667673053655e+02 -1.371794991466184115e+02 -1.371807585571009156e+02 -1.371743655830167370e+02 -1.371579257135733201e+02 -1.371301328785073395e+02 -1.370906288314611174e+02 -1.370398888837479490e+02 -1.369791529114394564e+02 -1.369103730611404899e+02 -1.368361243366768463e+02 -1.367594290883321833e+02 -1.366834773227402025e+02 -1.366112681620041087e+02 -1.365452359528469799e+02 -1.364869421247222760e+02 -1.364369037067883141e+02 -1.363945949677241458e+02 -1.363586126110401722e+02 -1.363269539271251176e+02 -1.362973351395519614e+02 -1.362674798432959165e+02 -1.362353312925620230e+02 -1.361991763949356766e+02 -1.361577001342086248e+02 -1.361100059942826590e+02 -1.360556362958586476e+02 -1.359946089591746272e+02 -1.359274625438825126e+02 -1.358552803546828613e+02 -1.357796562545469499e+02 -1.357025739741869188e+02 -1.356261958130009475e+02 -1.355525872288869209e+02 -1.354834293050906808e+02 -1.354197811941485554e+02 -1.353619446886234812e+02 -1.353094560839025178e+02 -1.352611961453058314e+02 -1.352155796605468367e+02 -1.351707718333595380e+02 -1.351248835134277044e+02 -1.350761174116785241e+02 -1.350228638982174516e+02 -1.349637668608905585e+02 -1.348977889533102541e+02 -1.348242982658885865e+02 -1.347431781713987675e+02 -1.346549370901433349e+02 -1.345607757232170059e+02 -1.344625650176630245e+02 -1.343627029017289658e+02 -1.342638487335933064e+02 -1.341685717690968715e+02 -1.340789804577981101e+02 -1.339964110913557249e+02 -1.339212417121109979e+02 -1.338528638062334437e+02 -1.337898018074159268e+02 -1.337299340505590806e+02 -1.336707512361022907e+02 -1.336095948293296374e+02 -1.335438438497761524e+02 -1.334710524528081805e+02 -1.333890680543209157e+02 -1.332961687653851754e+02 -1.331912450255713054e+02 -1.330740180457766542e+02 -1.329452493629285073e+02 -1.328068677071285322e+02 -1.326619357560842047e+02 -1.325144066005979369e+02 -1.323686726837072172e+02 -1.322289723014562810e+02 -1.320987683027578896e+02 -1.319802309003825371e+02 -1.318739330230451401e+02 -1.317788092402735458e+02 -1.316923580702000436e+02 -1.316110079425265553e+02 -1.315305399279198184e+02 -1.314464732998499983e+02 -1.313543651536018046e+02 -1.312500326226310960e+02 -1.311297514236046595e+02 -1.309904980894204414e+02 -1.308302778550519747e+02 -1.306485233783674289e+02 -1.304464822538891724e+02 -1.302274614283082315e+02 -1.299967891306709191e+02 -1.297614017057381091e+02 -1.295290557495816586e+02 -1.293072773096308481e+02 -1.291022505176419202e+02 -1.289178823929038060e+02 -1.287552420383940728e+02 -1.286124717213792508e+02 -1.284851394930279582e+02 -1.283668939837100424e+02 -1.282502299898820013e+02 -1.281271936016010216e+02 -1.279899345433785953e+02 -1.278311153092813299e+02 -1.276442677880807111e+02 -1.274242134518874252e+02 -1.271676197974343125e+02 -1.268736677935542332e+02 -1.265446901337175092e+02 -1.261865567462358939e+02 -1.258085745740616801e+02 -1.254227516784037419e+02 -1.250424353302760636e+02 -1.246805210949831633e+02 -1.243475788735307646e+02 -1.240502942520298433e+02 -1.237905537593893399e+02 -1.235653306304323422e+02 -1.233673128351132249e+02 -1.231860334389239000e+02 -1.230091771356214849e+02 -1.228237704589661234e+02 -1.226170948694605585e+02 -1.223773334178937375e+02 -1.220941014727426790e+02 -1.217590618648934537e+02 -1.213667610244747976e+02 -1.209156654253608423e+02 -1.204091861073562626e+02 -1.198563329943201836e+02 -1.192716125803653142e+02 -1.186739078502730678e+02 -1.180843366957193723e+02 -1.175233964661338320e+02 -1.170079572266531329e+02 -1.165487643025941935e+02 -1.161490042835549019e+02 -1.158042070038065674e+02 -1.155033963062438289e+02 -1.152310912494210129e+02 -1.149696014217872886e+02 -1.147010968913140232e+02 -1.144091311449675601e+02 -1.140795634507580587e+02 -1.137010572635761179e+02 -1.132654399078217153e+02 -1.127681649591952606e+02 -1.122089514471934848e+02 -1.115924581565641773e+02 -1.109286799328129547e+02 -1.102327039217182829e+02 -1.095235712197365388e+02 -1.088222286984296829e+02 -1.081488483052265366e+02 -1.075200310776384640e+02 -1.069465069682551785e+02 -1.064318462696617473e+02 -1.059724406832787196e+02 -1.055586794162208264e+02 -1.051769518004546171e+02 -1.048119475923235768e+02 -1.044487397421609387e+02 -1.040742969930922044e+02 -1.036783106309321596e+02 -1.032534403119071555e+02 -1.027952161505471764e+02 -1.023018478624519929e+02 -1.017741027860078304e+02 -1.012152736386676111e+02 -1.006311275040447413e+02 -1.000296632896821762e+02 -9.942053120853864812e+01 -9.881407426850807951e+01 -9.822009638908049567e+01 -9.764658703821797303e+01 -9.709868714326199779e+01 -9.657814118614516019e+01 -9.608335812504169837e+01 -9.561004266239073957e+01 -9.515221498477396267e+01 -9.470335802297252314e+01 -9.425743579371680880e+01 -9.380960201155113509e+01 -9.335652970350729163e+01 -9.289639887419167508e+01 -9.242864936737962012e+01 -9.195362799021562239e+01 -9.147223938140888322e+01 -9.098566713894778957e+01 -9.049518561839174424e+01 -9.000204860605154522e+01 -8.950742529814198178e+01 -8.901235525648202440e+01 -8.851770578345390561e+01 -8.802412948055277297e+01 -8.753203011087589402e+01 -8.704154797369280061e+01 -8.655257208754871101e+01 -8.606477856537593141e+01 -8.557768677803403534e+01 -8.509072074732505087e+01 -8.460326427806342053e+01 -8.411470387925641035e+01 -8.362446092898824190e+01 -8.313202047433954078e+01 -8.263696578864248465e+01 -8.213902424239496725e+01 -8.163812220994255142e+01 -8.113443753396865077e+01 -8.062843135031904751e+01 -8.012084023548419509e+01 -7.961261619575213899e+01 -7.910481468914252901e+01 -7.859844567914947788e+01 -7.809431427627039568e+01 -7.759288115325124124e+01 -7.709416675854009782e+01 -7.659770945275073473e+01 -7.610257151645522811e+01 -7.560737535342124715e+01 -7.511035054679230427e+01 -7.460938227124329103e+01 -7.410206952438414874e+01 -7.358582005198118736e+01 -7.305801813362954533e+01 -7.251629354587268494e+01 -7.195889217702804785e+01 -7.138510584505065992e+01 -7.079567380279631550e+01 -7.019303913822410834e+01 -6.958134653510070677e+01 -6.896611161869955708e+01 -6.835356977896968544e+01
1.373054784774363384e+02 1.372268379128668698e+02 1.371627018877412638e+02 1.371141094987133329e+02 1.370801420529844563e+02 1.370582579450321532e+02 1.370448458930973743e+02 1.370358549195767353e+02 1.370273619143209487e+02 1.370159808628880569e+02 1.369990816235934403e+02 1.369748458145190568e+02 1.369422235183582188e+02 1.369008591914250133e+02 1.368510328755962746e+02 1.367936269478885833e+02 1.367300955295085032e+02 1.366623965878449098e+02 1.365928516754721898e+02 1.365239223381211673e+02 1.364579253594485237e+02 1.363967377165764674e+02 1.363415547171885294e+02 1.362927558916315149e+02 1.362499057929980779e+02 1.362118809493017295e+02 1.361770827705981048e+02 1.361436799150476133e+02 1.361098268356140295e+02 1.360738248085061457e+02 1.360342188224387314e+02 1.359898475233918589e+02 1.359398754001399539e+02 1.358838330685172195e+02 1.358216753071653784e+02 1.357538446381559538e+02 1.356813101055220159e+02 1.356055446854930153e+02 1.355284144361335450e+02 1.354519760100388908e+02 1.353782087311084581e+02 1.353087321647370231e+02 1.352445701239552420e+02 1.351860126632911090e+02 1.351326015315591178e+02 1.350832310494584760e+02 1.350363275638030416e+02 1.349900565375959332e+02 1.349425109368123117e+02 1.348918544628989480e+02 1.348364192776368498e+02 1.347747792265382145e+02 1.347058275953749558e+02 1.346288799868752619e+02 1.345438013309891119e+02 1.344511300192594661e+02 1.343521527180956809e+02 1.342488800264970052e+02 1.341438899387109416e+02 1.340400396555538975e+02 1.339400861715639621e+02 1.338462880628924268e+02 1.337600725072003058e+02 1.336818372147428420e+02 1.336109207650258668e+02 1.335457294334209735e+02 1.334839701908968550e+02 1.334229215751135484e+02 1.333596818747983832e+02 1.332913628339707373e+02 1.332152341591764184e+02 1.331288537271672681e+02 1.330302275948488102e+02 1.329180274269086510e+02 1.327918554889923826e+02 1.326525026696286318e+02 1.325021117138277305e+02 1.323441528723762701e+02 1.321831506134330425e+02 1.320241624592327128e+02 1.318720854596411414e+02 1.317309258342029068e+02 1.316031891399951519e+02 1.314895212006214251e+02 1.313886617583603424e+02 1.312976874464372941e+02 1.312124490462537096e+02 1.311280751354792358e+02 1.310394294180758550e+02 1.309414625634208562e+02 1.308294671244529184e+02 1.306992972691647594e+02 1.305476311775354930e+02 1.303723250789665542e+02 1.301728436578088974e+02 1.299506763582908775e+02 1.297095943227617454e+02 1.294555955525720492e+02 1.291964385517907488e+02 1.289407673407926609e+02 1.286969522090729754e+02 1.284718683295616870e+02 1.282698703815799774e+02 1.280921782964866793e+02 1.279367792081804680e+02 1.277988117730621980e+02 1.276712807531047531e+02 1.275458933176158212e+02 1.274138304552180472e+02 1.272663530581703242e+02 1.270952540263886448e+02 1.268932573052629351e+02 1.266544932066815790e+02 1.263751313030849417e+02 1.260541424029864714e+02 1.256940310258496680e+02 1.253012843195768369e+02 1.248862712780409510e+02 1.244624197319538581e+02 1.240446806503417889e+02 1.236475041541394262e+02 1.232827230943293984e+02 1.229578006327019040e+02 1.226748182278260515e+02 1.224303827115013803e+02 1.222163843039605240e+02 1.220213286442522929e+02 1.218318659448891168e+02 1.216341759906184734e+02 1.214150132195766076e+02 1.211624061776107482e+02 1.208661620968352395e+02 1.205183888676285875e+02 1.201141901808062755e+02 1.196525377404219483e+02 1.191371377428187657e+02 1.185769654617647149e+02 1.179861100841752517e+02 1.173826834915631565e+02 1.167867796203877475e+02 1.162177519496818405e+02 1.156913040265466321e+02 1.152169708204544207e+02 1.147964658871220109e+02 1.144231112277314963e+02 1.140822484228233407e+02 1.137522759589615617e+02 1.134058741254342664e+02 1.130111082330731023e+02 1.125324032134080028e+02 1.119317449696480509e+02 1.111707336986283821e+02 1.102141422340796879e+02 1.090353124178627837e+02 1.076230346830678286e+02 1.059886207589255633e+02 1.041710095272549950e+02 1.022374259474681253e+02 1.002778055846429055e+02 9.839298550258388332e+01 9.667896502444310158e+01 9.521126203900709584e+01 9.403357645970483247e+01 9.315349095068167173e+01 9.254557707462183203e+01 9.216015525070513092e+01 9.193483019516200727e+01 9.180589330407464388e+01 9.171740605601247864e+01 9.162680706828118105e+01 9.150687865742960980e+01 9.134466844441207911e+01 9.113839836009405815e+01 9.089349979048401451e+01 9.061875201527890056e+01 9.032318330024740760e+01 9.001404227515568834e+01 8.969585381516695577e+01 8.937038028715858218e+01 8.903721323952817102e+01 8.869469785409847873e+01 8.834091730580634305e+01 8.797451992173100166e+01 8.759524882478814334e+01 8.720412169824496118e+01 8.680329317753300700e+01 8.639569713749767743e+01 8.598459696496810523e+01 8.557316433390175803e+01 8.516416839470423383e+01 8.475980411795147518e+01 8.436163998797400154e+01 8.397063628652334444e+01 8.358718193742981839e+01 8.321111661789548464e+01 8.284173464262026698e+01 8.247779436287018484e+01 8.211757008579407113e+01 8.175897742585399897e+01 8.139977984782359499e+01 8.103785294904587033e+01 8.067145606734285934e+01 8.029944899150935100e+01 7.992140010649487181e+01 7.953755870775478343e+01 7.914869937098892194e+01 7.875587833906081414e+01 7.836016110108430155e+01 7.796238242409620511e+01 7.756298704689874057e+01 7.716197730770277019e+01 7.675897029235380842e+01 7.635334682674474038e+01 7.594445994998048377e+01 7.553186142400531367e+01 7.511550107833495815e+01 7.469585606456747939e+01 7.427395693533136978e+01 7.385129564267880653e+01 7.342962517289771540e+01 7.301068618624344708e+01 7.259591495490094815e+01 7.218619196254664416e+01 7.178167868575081911e+01 7.138176444137911858e+01 7.098511454474783022e+01 7.058978667863217993e+01 7.019337359653381725e+01 6.979314036897056894e+01 6.938614894638537578e+01 6.896939105220599231e+01 6.853996887566916030e+01 6.809536062051846272e+01 6.763378066675652178e+01 6.715459776596279085e+01 6.665872463859570018e+01 6.614885919560104810e+01 6.562945994343124312e+01 6.510638419112751762e+01 6.458619959471801053e+01 6.407527349651360282e+01 6.357881794713417634e+01 6.310009258291854195e+01 6.263993036899154987e+01 6.219666323233046512e+01 6.176641634282664484e+01 6.134364994130782378e+01 6.092178751092671263e+01 6.049379034026469526e+01 6.005260877405727626e+01 5.959152862898336167e+01 5.910449965401574701e+01 5.858655121656543940e+01 5.803435695449094567e+01 5.744691717894147587e+01 5.682621894814342767e+01 5.617765384238415294e+01 5.550996307826051890e+01 5.483455810810740161e+01 5.416421905143365478e+01 5.351135736468324922e+01 5.288617867952619633e+01 5.229513823829000074e+01 5.174001736666435391e+01 5.121778255871263497e+01 5.072117697538261183e+01 5.023981329141511765e+01 4.976144989139621089e+01 4.927316448102472179e+01 4.876226837853822360e+01 4.821697240639411319e+01 4.762694978776973187e+01 4.698398571012843661e+01 4.628283596982753068e+01 4.552226122143646592e+01 4.470601920279797525e+01 4.384346290508978683e+01 4.294937569298420499e+01 4.204280456469808769e+01 4.114490484260961978e+01 4.027610608461120734e+01 3.945314501638384286e+01 3.868659451973471874e+01 3.797940762403931814e+01 3.732672355207163406e+01 3.671684339570690270e+01 3.613299648591546998e+01 3.555538392219168031e+01 3.496304174454697744e+01 3.433527779747544884e+01 3.365271016013159766e+01 3.289815613439269981e+01 3.205769532871010341e+01 3.112211999244019012e+01 3.008872349124117918e+01 2.896306088953926405e+01 2.776007559718641104e+01 2.650394277571608370e+01 2.522619251220996972e+01 2.396210774324292814e+01 2.274591272705224654e+01 2.160569267546326699e+01 2.055914606744255835e+01 1.961108971065784345e+01 1.875316366838860205e+01 1.796558436788024338e+01 1.722028451164128171e+01 1.648453449378230573e+01 1.572422995014630231e+01 1.490639037094984864e+01 1.400088049721248495e+01 1.298174333417927606e+01 1.182866801650433253e+01 1.052895267214873876e+01 9.079923944937995373e+00 7.491298999857877838e+00 5.786623354610874514e+00 4.002860945623619493e+00 2.187526860681523910e+00 3.933759232051450283e-01 -1.328600685639956147e+00 -2.936524393173728154e+00 -4.403759130716142778e+00 -5.722519333079035597e+00 -6.904321320298815401e+00 -7.977487515438039800e+00 -8.982635549839960376e+00 -9.967438483676534844e+00 -1.098182819801073151e+01 -1.207431263911066743e+01 -1.328941310640120044e+01 -1.466567710885572318e+01 -1.623351071856687966e+01 -1.801229345231673307e+01 -2.000681178056763798e+01 -2.220375079014519315e+01 -2.456951960485238118e+01 -2.705078916999773853e+01 -2.957866528887965885e+01 -3.207648938435806940e+01 -3.447014258496502492e+01 -3.669882493157993508e+01 -3.872394783153782782e+01 -4.053417646209079805e+01 -4.214567682913153135e+01 -4.359790759673088445e+01 -4.494639874069769547e+01 -4.625451017960524780e+01 -4.758602183733901114e+01 -4.899969690349684726e+01 -5.054600519948228765e+01 -5.226537518884765632e+01 -5.418695558570247073e+01 -5.632701932860169336e+01 -5.868673299370546204e+01 -6.124978065718068621e+01 -6.398094472828567092e+01 -6.682692978491867564e+01 -6.972034358155607947e+01 -7.258690447907021337e+01 -7.535490112864819423e+01 -7.796506421678975585e+01 -8.037865817801970536e+01 -8.258192412560292439e+01 -8.458591738463046283e+01 -8.642197928059869128e+01 -8.813416182903986851e+01 -8.977054696144016077e+01 -9.137541801242721817e+01 -9.298372494571773927e+01 -9.461847828007816474e+01 -9.629090327494364487e+01 -9.800261491224500787e+01 -9.974883466294400591e+01 -1.015217308956648168e+02 -1.033132142997238105e+02 -1.051168299224038378e+02 -1.069286625766693675e+02 -1.087473663828220225e+02 -1.105735366211686141e+02 -1.124086773743056824e+02 -1.142539988359643957e+02 -1.161092176615318294e+02 -1.179714472033380304e+02 -1.198341747076370751e+02 -1.216862626589972791e+02 -1.235109183011805243e+02 -1.252846746622294347e+02 -1.269766144134047323e+02 -1.285482971759571456e+02 -1.299550288679162691e+02 -1.311491190828808442e+02 -1.320855041703111681e+02 -1.327295344221071218e+02 -1.330659190641515863e+02 -1.331070154018594280e+02 -1.328981549505124065e+02 -1.325178215737087442e+02 -1.320713796972914338e+02 -1.316785695556288545e+02 -1.314567298020122621e+02 -1.315030939963807555e+02 -1.318800041712969744e+02 -1.326062417698944955e+02 -1.336560592392017668e+02 -1.349654446471026858e+02 -1.364433741971640757e+02 -1.379848944548230634e+02 -1.394830710658362705e+02 -1.408379608717801261e+02 -1.419622973287116565e+02 -1.427849013454096792e+02 -1.432534469313607985e+02 -1.433379310462642309e+02 -1.430351818971010971e+02 -1.423734354183954451e+02 -1.414149821215065685e+02 -1.402546183937942601e+02 -1.390123420136616801e+02 -1.378202559744042617e+02 -1.368054920555352112e+02 -1.360724666654639350e+02 -1.356883477728779610e+02 -1.356749779117840831e+02 -1.360088439645214464e+02 -1.366285728452576222e+02 -1.374475860161233527e+02 -1.383685599854105703e+02 -1.392964595033730291e+02 -1.401479647073805666e+02 -1.408566228078376810e+02 -1.413744420632667698e+02 -1.416714575188518666e+02 -1.417348478262320839e+02 -1.415685787793872805e+02 -1.411936202412105388e+02 -1.406479412823216819e+02 -1.399850825008756203e+02 -1.392703028748415193e+02 -1.385740335507392160e+02 -1.379633640703090407e+02 -1.374931497158562763e+02 -1.371987126873290777e+02 -1.370918437710780893e+02 -1.371609739702169577e+02 -1.373752747811851123e+02 -1.376914543545468348e+02 -1.380614729561286538e+02 -1.384394440286877739e+02 -1.387865301466228232e+02 -1.390734331507960917e+02 -1.392808129764406431e+02 -1.393984184013276888e+02 -1.394237849774031588e+02 -1.393611082140386941e+02 -1.392204912877362801e+02 -1.390173819681323835e+02 -1.387717996825862485e+02 -1.385069748094126680e+02 -1.382472486309865758e+02 -1.380154095481524621e+02 -1.378299323207486680e+02 -1.377027242854512110e+02 -1.376379099656092251e+02 -1.376319289773474281e+02 -1.376748761372139995e+02 -1.377527007676931419e+02 -1.378497076120416978e+02 -1.379508094604968278e+02 -1.380431469548682060e+02 -1.381169373823302919e+02 -1.381656481712485345e+02 -1.381857384365618771e+02 -1.381762419678377967e+02 -1.381383921906700039e+02 -1.380753614607389466e+02 -1.379920624423010054e+02 -1.378948868805956636e+02 -1.377912600510716743e+02 -1.376889601495159354e+02 -1.375952578473091137e+02 -1.375160269748313056e+02 -1.374550229011827867e+02 -1.374135013045965366e+02 -1.373902649920353269e+02 -1.373821120416568533e+02 -1.373845564356160196e+02 -1.373926368846708215e+02 -1.374016349285455192e+02 -1.374075802555200880e+02 -1.374075030850680719e+02 -1.373994692812387939e+02 -1.373824800075755093e+02 -1.373563252436112236e+02 -1.373214554217072418e+02 -1.372788938833304258e+02 -1.372301735344126428e+02 -1.371772586893543462e+02 -1.371224140619149807e+02 -1.370680043290028323e+02 -1.370162394603789551e+02 -1.369689096588553809e+02 -1.369271676658917443e+02 -1.368914097576755751e+02 -1.368612823376847416e+02 -1.368358077397039949e+02 -1.368135927420842961e+02 -1.367930665055017130e+02 -1.367726956481101013e+02 -1.367511405592719029e+02 -1.367273412023184846e+02 -1.367005432043569897e+02 -1.366702885328086836e+02 -1.366363963896691871e+02 -1.365989507917639685e+02 -1.365582968780926478e+02 -1.365150348263106821e+02 -1.364699938090261071e+02 -1.364241712015536336e+02 -1.363786331137206673e+02 -1.363343869377980866e+02 -1.362922491374640686e+02 -1.362527368347545291e+02 -1.362160075291659496e+02 -1.361818588709426479e+02 -1.361497843327572070e+02 -1.361190666940899519e+02 -1.360888842187725345e+02 -1.360584061411884420e+02 -1.360268630494811930e+02 -1.359935898911318475e+02 -1.359580497640813519e+02 -1.359198515996537537e+02 -1.358787728398639274e+02 -1.358347905019824964e+02 -1.357881139787659777e+02 -1.357392048249773495e+02 -1.356887663121899834e+02 -1.356376904073912613e+02 -1.355869610052164376e+02 -1.355375260840762053e+02 -1.354901629331602635e+02 -1.354453651872395881e+02 -1.354032759717671865e+02 -1.353636792651404619e+02 -1.353260459122094801e+02 -1.352896171967063594e+02 -1.352535021973705796e+02 -1.352167672295664147e+02 -1.351785049838586303e+02 -1.351378832810553945e+02 -1.350941834679113640e+02 -1.350468422105520290e+02 -1.349955062006162052e+02 -1.349400986278172638e+02 -1.348808834204332356e+02 -1.348185036917536195e+02 -1.347539693141150678e+02 -1.346885771814736472e+02 -1.346237648075000379e+02 -1.345609181124430052e+02 -1.345011703688959983e+02 -1.344452349722153031e+02 -1.343933072081248099e+02 -1.343450516839888280e+02 -1.342996690262654340e+02 -1.342560160464110197e+02 -1.342127445476752428e+02 -1.341684278556877814e+02 -1.341216585534272383e+02 -1.340711194118593710e+02 -1.340156443495291398e+02 -1.339542911410004535e+02 -1.338864400293026051e+02 -1.338119146946357034e+02 -1.337311007713235540e+02 -1.336450211037875988e+02 -1.335553241606967561e+02 -1.334641563518346459e+02 -1.333739179694518953e+02 -1.332869373599432379e+02 -1.332051263972074082e+02 -1.331296911748073057e+02 -1.330609597983312824e+02 -1.329983575950018064e+02 -1.329405200064757651e+02 -1.328854993011667887e+02 -1.328310049590717483e+02 -1.327746238188941845e+02 -1.327139906052122171e+02 -1.326469111244498436e+02 -1.325714657244403440e+02 -1.324861288787373610e+02 -1.323899280842898634e+02 -1.322826360203335696e+02 -1.321649554410809060e+02 -1.320386311213226236e+02 -1.319064199262873842e+02 -1.317718742403824592e+02 -1.316389408676741368e+02 -1.315114327109854173e+02 -1.313924745518298494e+02 -1.312840399045988420e+02 -1.311866756051995253e+02 -1.310994603205976148e+02 -1.310201800600758872e+02 -1.309456505509705266e+02 -1.308720915778465610e+02 -1.307954693931028771e+02 -1.307117635013636061e+02 -1.306171658068910233e+02 -1.305082613334112125e+02 -1.303822524245664169e+02 -1.302372650996581740e+02 -1.300727235872801657e+02 -1.298897161959166340e+02 -1.296912287108523003e+02 -1.294821142437575361e+02 -1.292687124893746500e+02 -1.290581191828117369e+02 -1.288572116397808998e+02 -1.286716212854524315e+02 -1.285048753646986199e+02 -1.283578921771641319e+02 -1.282289179943176407e+02 -1.281138731539834907e+02 -1.280069732281683912e+02 -1.279014440797045182e+02 -1.277901702916678346e+02 -1.276661913484285691e+02 -1.275230551963889809e+02 -1.273551140677415248e+02 -1.271578713011437998e+02 -1.269284492781726641e+02 -1.266661608856829275e+02 -1.263730638520551111e+02 -1.260543019727442271e+02 -1.257180268910994272e+02 -1.253747652162662831e+02 -1.250362347878876221e+02 -1.247137784968172696e+02 -1.244167164690416314e+02 -1.241509661954457755e+02 -1.239182219561042047e+02 -1.237158359557282239e+02 -1.235373553590053461e+02 -1.233735086090529478e+02 -1.232133564905109466e+02 -1.230453507703248590e+02 -1.228581573313343398e+02 -1.226412503677847212e+02 -1.223854061554727650e+02 -1.220832676952462919e+02 -1.217300946060491214e+02 -1.213246746592796228e+02 -1.208702073053084689e+02 -1.203748457358747430e+02 -1.198515648785076593e+02 -1.193171370761666168e+02 -1.187902238507482195e+02 -1.182888613387442831e+02 -1.178278328987660757e+02 -1.174164999862564258e+02 -1.170575637703086471e+02 -1.167469832246861614e+02 -1.164749658191469450e+02 -1.162276831225984921e+02 -1.159892339006572399e+02 -1.157434154659667200e+02 -1.154750393077288777e+02 -1.151707601870524087e+02 -1.148195847991541996e+02 -1.144133134870727133e+02 -1.139471188811684357e+02 -1.134203043707034908e+02 -1.128370811422238091e+02 -1.122070418036031896e+02 -1.115449660576872901e+02 -1.108697039802302129e+02 -1.102021228601683447e+02 -1.095623980823498442e+02 -1.089671718243376972e+02 -1.084272004802568148e+02 -1.079460174201139040e+02 -1.075198774290045236e+02 -1.071389112742931360e+02 -1.067891196329613308e+02 -1.064546728820270260e+02 -1.061199990527756682e+02 -1.057713106550167623e+02 -1.053974643263337043e+02 -1.049902704621479046e+02 -1.045444980469127074e+02 -1.040578221196850137e+02 -1.035308565979128446e+02 -1.029672596100829622e+02 -1.023737619200558981e+02 -1.017599096221414356e+02 -1.011373564510077472e+02 -1.005186745518851978e+02 -9.991582572239514093e+01 -9.933858112522281658e+01 -9.879323780616232398e+01 -9.828192814474859063e+01 -9.780266937101440305e+01 -9.735010652235321515e+01 -9.691673062088170809e+01 -9.649425947622826527e+01 -9.607487425425352967e+01 -9.565209610149074138e+01 -9.522122162594327222e+01 -9.477936403506797092e+01 -9.432522981725580280e+01 -9.385878341206137065e+01 -9.338092214922924938e+01 -9.289322425094121627e+01 -9.239777157608631342e+01 -9.189700797371443741e+01 -9.139358387544380946e+01 -9.089015563882536242e+01 -9.038914198091339358e+01 -8.989247326231080137e+01 -8.940138809634720474e+01 -8.891632849554541451e+01 -8.843696140927674776e+01 -8.796232065012840451e+01 -8.749103183077694723e+01 -8.702156503646044428e+01 -8.655246046056652176e+01 -8.608248875546797763e+01 -8.561073258231101590e+01 -8.513659927441156583e+01 -8.465978925131420851e+01 -8.418024783182913495e+01 -8.369812102182483216e+01 -8.321372347581429096e+01 -8.272751482749391982e+01 -8.224007343621747168e+01 -8.175205627996069779e+01 -8.126413940192175289e+01 -8.077694195748840400e+01 -8.029094457341912516e+01 -7.980641610858417323e+01 -7.932336059033998765e+01 -7.884148917445246241e+01 -7.836021363718924704e+01 -7.787865224056452007e+01 -7.739563912076573615e+01 -7.690973564456807310e+01 -7.641925435221105545e+01 -7.592231815811145168e+01 -7.541698287459833239e+01 -7.490144407467494148e+01 -7.437432749606088578e+01 -7.383502897153231004e+01 -7.328403486607786022e+01 -7.272313103129160083e+01 -7.215541061447079585e+01 -7.158502525527690352e+01 -7.101668530461091677e+01 -7.045498555947347086e+01 -6.990368928875442123e+01 -6.936512290742611242e+01 -6.883980653102251779e+01 -6.832637947772624898e+01 -6.782179799075893811e+01 -6.732171510239837176e+01 -6.682092409246666875e+01 -6.631376617566608900e+01 -6.579445948571027714e+01 -6.525737476783292834e+01 -6.469733301402966674e+01 -6.411000761864966080e+01 -6.349247029718944901e+01 -6.284383771559981113e+01 -6.216588377861545922e+01 -6.146341881664417883e+01 -6.074423484306196741e+01 -6.001849029200559471e+01 -5.929754491697276109e+01 -5.859241527891774126e+01 -5.791214814135454247e+01 -5.726245392927385325e+01 -5.664488320193576243e+01 -5.605668242790855516e+01 -5.549128195172395550e+01 -5.493921442811522837e+01 -5.438919042683082239e+01 -5.382909081715902033e+01 -5.324675345835140661e+01 -5.263058231641728923e+01 -5.197012539969536959e+01 -5.125680059836831504e+01 -5.048487438380803383e+01 -4.965263798968916831e+01 -4.876353770506663210e+01 -4.782687889754357968e+01 -4.685770809625806521e+01 -4.587561691427417543e+01 -4.490248108750639489e+01 -4.395946591729766340e+01 -4.306388334766772630e+01 -4.222657560690948486e+01 -4.145038141123203701e+01 -4.072994743967618092e+01 -4.005278286437372515e+01 -3.940114892728705343e+01 -3.875423479896813461e+01 -3.809013440244768844e+01 -3.738736569546854582e+01 -3.662596226030221658e+01 -3.578839533705185971e+01 -3.486065723970128261e+01 -3.383371977934618258e+01 -3.270531317669029647e+01 -3.148165397724671877e+01 -3.017851668974705603e+01 -2.882100900391401410e+01 -2.744162742696567037e+01 -2.607659925971227111e+01 -2.476102813385871215e+01 -2.352377444419043684e+01 -2.238315771541731181e+01 -2.134439049369504815e+01 -2.039919192802381076e+01 -1.952744338955293202e+01 -1.870024669482710777e+01 -1.788350155991821566e+01 -1.704120322717337288e+01 -1.613801562839237391e+01 -1.514113990234034013e+01 -1.402187503685498804e+01 -1.275739732240730362e+01 -1.133310602116929822e+01 -9.745454277053559267e+00 -8.004672659997686068e+00 -6.136415207728528998e+00 -4.181305140207697058e+00 -2.191715238773624286e+00 -2.258178030176702100e-01 1.660234850672861029e+00 3.420479915257952808e+00 5.025912017177831537e+00 6.468405402240494873e+00 7.761104885918237883e+00 8.935546806957130883e+00 1.003657163078208470e+01 1.111647203789842919e+01 1.222968051654168420e+01 1.342873647265051318e+01 1.476153668835915767e+01 1.626926828041859352e+01 1.798419130607738126e+01 1.992667211735556876e+01 2.210148155592914421e+01 2.449412402236884034e+01 2.706853949929469749e+01 2.976764133476799046e+01 3.251768472992656456e+01 3.523648873189935671e+01 3.784435562702516620e+01 4.027556299043727250e+01 4.248792408618113114e+01 4.446830272178293342e+01 4.623302392843960718e+01 4.782348151774426981e+01 4.929843371887766779e+01 5.072510208527579323e+01 5.217108112688426047e+01 5.369834322360626544e+01 5.535961776109487431e+01 5.719653871926383459e+01 5.923850918673244337e+01 6.150134868025256907e+01 6.398537156058326048e+01 6.667332137120797597e+01 6.952921646606007755e+01 7.249936034643738481e+01 7.551640834860999973e+01 7.850654680808291630e+01 8.139881089047443652e+01 8.413471951978335994e+01 8.667607179696526032e+01 8.900908174251992477e+01 9.114393491146101667e+01 9.311002882093058020e+01 9.494821863127826589e+01 9.670200637528000698e+01 9.840964596935249631e+01 1.000986600148489032e+02 1.017835025621889287e+02 1.034663189708217459e+02 1.051401499139275160e+02 1.067935862478904596e+02 1.084157870291472392e+02 1.100008571997026792e+02 1.115507826183020086e+02 1.130764068511599589e+02 1.145962930991763926e+02 1.161337176915512686e+02 1.177124215741042548e+02 1.193520034365630522e+02 1.210638791089122321e+02 1.228485208779841571e+02 1.246942833335841812e+02 1.265776603480740476e+02 1.284644779505075860e+02 1.303114511012332741e+02 1.320677595258159727e+02 1.336767416727425370e+02 1.350782720937797592e+02 1.362126383574989745e+02 1.370265761721541367e+02 1.374814940013252453e+02 1.375629453687604382e+02 1.372893948513857936e+02 1.367176831787751894e+02 1.359426986567087283e+02 1.350897698257035415e+02 1.343000442901479516e+02 1.337111185189360469e+02 1.334367579090290690e+02 1.335500922437681766e+02 1.340739167218433181e+02 1.349798728021262377e+02 1.361959430611178732e+02 1.376196673010161362e+02 1.391334355466930504e+02 1.406184113559267246e+02 1.419648872867406340e+02 1.430786096726046992e+02 1.438841418066744495e+02 1.443271091537048108e+02 1.443769579974466239e+02 1.440308158220786083e+02 1.433176366695153661e+02 1.423006577874572542e+02 1.410758173090603691e+02 1.397644394794943139e+02 1.385000420964641705e+02 1.374110469271660975e+02 1.366027672414947745e+02 1.361426725406319349e+02 1.360522946566514690e+02 1.363074231807055412e+02 1.368460354131511849e+02 1.375814816539129026e+02 1.384174272072087319e+02 1.392611890549366080e+02 1.400332091191114898e+02 1.406719692972817768e+02 1.411350798764543129e+02 1.413981092272451292e+02 1.414527976171245029e+02 1.413057352850425445e+02 1.409777120445452567e+02 1.405031515776504136e+02 1.399286400181519525e+02 1.393096838249255427e+02 1.387054181600695983e+02 1.381717936373702855e+02 1.377544749662717436e+02 1.374830073365004068e+02 1.373676094122622260e+02 1.373992979453602459e+02 1.375531720453032847e+02 1.377938939902828963e+02 1.380819585054231311e+02 1.383793585281860317e+02 1.386536716005545884e+02 1.388802132629243999e+02 1.390424949813655076e+02 1.391315966218006110e+02 1.391451381582972147e+02 1.390863504198449334e+02 1.389634219488038980e+02 1.387889877555397504e+02 1.385794476906087311e+02 1.383538138670982676e+02 1.381319671880984288e+02 1.379324683598170225e+02 1.377703058124952520e+02 1.376550734592644289e+02 1.375900088235963779e+02 1.375721087381818961e+02 1.375932548359698160e+02 1.376420271286795867e+02 1.377057455846595246e+02 1.377722918061429596e+02 1.378314029571888568e+02 1.378753332897634607e+02 1.378989682197358491e+02 1.378995929375586798e+02 1.378765386183080466e+02 1.378308682120177764e+02 1.377651598666283235e+02 1.376833463013401229e+02 1.375905107770340408e+02 1.374925422017390133e+02 1.373956070602019679e+02
